-0.044000003, -0.020000001, -0.011999999, 0.028000003, -0.020000001, -0.068, -0.012000001, -0.0040000007, -0.020000001, 0.028, 0.076000005, -0.012, -0.004, -0.004, -0.012, -0.012000001, 0.044000003, 0.02, 0.044000003, 0.0039999993, 0.0039999997, -0.012, -0.012000001, 0.036000002, 0.02, 0.076000005, 0.0039999993, 0.0039999997, -0.012, -0.028000003, 0.020000001, 0.0039999997, 0.044000003, 0.0039999997, 0.02, -0.012, 0.036000002, 0.036000002, 0.036000002, 0.060000006, 0.052000005, 0.0039999997, 0.0039999993, -0.0039999993, 0.044000003, 0.02, 0.028, 0.036000002, 0.02, 0.011999999, -0.011999999, 0.028, 0.028, 0.0039999993, 0.012, 0.011999999, -0.011999999, 0.028000003, -0.036000002, -0.036000002, -0.02, 0.004, 0.036000002, 0.020000001, 0.028000003, 0.003999999, -0.020000001, 0.012, 0.068, -0.068, 0.028, 0.012000001, 0.036000002, 0.0039999993, 0.020000001, -0.044000003, 0.10000001, 0.012000001, 0.028, 0.02, 0.0039999993, -0.012, 0.028, 0.10800001, 0.012000001, 0.028, 0.02, 0.028, 0.036000002, 0.09200001, 0.052, 0.012000001, 0.036000002, 0.044000003, 0.068, 0.060000002, 0.09200001, 0.036000002, 0.012000001, -0.004, 0.0039999993, -0.036000002, 0.011999999, -0.0040000007, 0.11600001, -0.0039999983, 0.0039999983, 0.028, 0.020000001, 0.020000001, 0.011999999, 0.09200001, 0.011999999, -0.011999999, 0.036000002, 0.036000002, 0.028, -0.068, 0.08400001, -0.004, -0.004, -0.004000001, 0.012, 0.003999999, 0.044000003, -0.076000005, -0.076000005, -0.052000005, 0.036000002, 0.011999999, 0.012000001, -0.044000003, 0.044000003, -0.036000002, 0.10800001, 0.052000005, 0.028, 0.020000001, 0.020000001, 0.068, 0.060000006, 0.012000001, 0.044000003, 0.0039999993, 0.036000002, 0.004000001, 0.036000002, 0.060000006, 0.012000001, -0.012000001, 0.036000002, 0.02, 0.004000001, -0.02, 0.060000006, -0.052000005, -0.02, 0.0040000007, -0.012000001, -0.036000002, 0.012000001, 0.060000006, -0.012000001, 0.011999999, 0.02, 0.036000002, -0.020000001, -0.02, 0.052000005, -0.028, 0.044000003, 0.020000001, 0.036000002, -0.012000001, 0.028000003, -0.044000003, 0.044000003, 0.052000005, 0.052000005, 0.028, -0.004000001, 0.036000002, -0.09200001, -0.076000005, -0.012000001, 0.004, -0.004000001, -0.020000001, 0.0039999993, 0.044000003, 0.052000005, -0.004000001, -0.012000001, 0.012, -0.09200001, -0.028, 0.044000003, -0.0039999983, 0.044000003, 0.02, 0.028, 0.08400001, -0.060000006, -0.003999999, 0.044000003, 0.036000002, 0.011999999, 0.02, 0.028, 0.044000003, -0.003999999, 0.044000003, -0.028, -0.011999998, -0.012000001, -0.0039999983, 0.11600001, -0.003999999, -0.0039999993, -0.044000003, -0.003999999, -0.012, -0.02, 0.12400001, -0.003999999, 0.02, 0.02, -0.0040000007, 0.028, 0.0039999993, 0.08400001, -0.011999998, 0.011999998, 0.036000002, 0.028, 0.012000001, 0.011999999, 0.036000002, 0.036000002, -0.036000002, 0.044000003, 0.044000003, 0.036000002, 0.060000006, -0.052000005, 0.028, 0.028, -0.020000001, 0.012, 0.003999999, -0.10000001, -0.0040000007, 0.036000002, 0.052000005, -0.012000001, 0.052, 0.09200001, -0.0039999993, 0.132, 0.052000005, -0.0039999983, 0.060000002, 0.02, 0.028000005, -0.044000003, 0.036000002, 0.004000001, 0.044000003, 0.044000003, 0.0039999993, 0.02, 0.05200001, -0.076000005, 0.004000001, 0.044000003, 0.011999999, 0.09200001, 0.044000003, 0.020000003, -0.044000003, 0.004000001, 0.028, 0.02, 0.13999999, 0.08400001, -0.052000005, 0.012000001, 0.004000001, 0.0039999997, 0.012000001, 0.020000001, 0.028, 0.011999999, -0.076000005, -0.011999998, 0.011999998, 0.05200001, 0.036000006, -0.044000003, 0.028, -0.09200001, 0.036000002, -0.036000002, 0.060000002, 0.060000002, 0.044000003, -0.08400001, 0.020000001, 0.0039999983, 0.011999999, -0.020000003, 0.09200001, 0.076000005, -0.036000002, 0.15599996, -0.024, -0.015999999, -0.048000004, -0.048000004, 0.008, 0.032, 0.032, 0.016, -0.024, 0.040000003, -7.413328e-10, 0.024000002, 0.048000004, 7.413328e-10, -0.007999999, 2.7567149e-10, 0.032, -0.008, 0.024, 0.08800001, -0.007999999, -0.007999999, 2.7567149e-10, -0.016, 0.024, -7.413328e-10, 0.08800001, 0.008, -0.007999999, -0.024, -0.032, 0.016, -0.008, 0.064, 0.024000002, -0.007999999, -0.040000003, 0.015999999, -6.556511e-10, 0.024, 0.048000004, 0.008, -0.015999999, -1.6726553e-09, 0.015999999, 0.008000001, 1.1213124e-09, 0.056000005, -0.015999999, 0.008000001, -0.008000001, 0.040000003, 0.040000003, 0.032, 0.007999999, 7.413328e-10, -0.040000003, -0.056000005, -1.1213124e-09, 0.024000002, 0.015999999, -0.056000005, -6.556511e-10, 0.044000003, 0.020000001, 0.003999999, -0.10800001, -0.060000002, 0.036000002, 0.036000002, 0.028000003, 0.036000002, 0.028, -0.020000001, 0.08400001, 0.028, -0.028, 0.020000001, 0.044000003, 0.011999999, 0.052000005, 0.036000002, 0.012000001, -0.0039999993, 0.020000001, 0.044000003, 0.028, 0.028, -0.028, 0.012000001, -0.0039999993, 0.020000001, 0.036000002, 0.011999999, -0.02, -0.036000002, -0.02, 0.012000001, 0.020000001, -0.004, 0.028, 0.044000003, 0.0039999993, -0.036000002, -0.0039999993, 0.004000001, -0.004000001, 0.004000001, 0.028, 0.068, -0.020000001, -0.02, 0.012000001, -0.012000001, 0.028, 0.028, 0.052000005, 0.028, -0.044000003, 0.02, -0.028, -0.012000001, -0.068, -0.076000005, 0.0039999997, 0.028